digraph Tree {
node [shape=box, style="filled, rounded", color="black", fontname="helvetica"] ;
edge [fontname="helvetica"] ;
0 [label="类黄酮 <= 1.385\nentropy = 1.576\nsamples = 124\nvalue = [41, 47, 36]\nclass = 雪莉", fillcolor="#f1fdf6"] ;
1 [label="颜色强度 <= 3.725\nentropy = 0.684\nsamples = 44\nvalue = [0, 8, 36]\nclass = 贝尔摩德", fillcolor="#9d65eb"] ;
0 -> 1 [labeldistance=2.5, labelangle=45, headlabel="True"] ;
2 [label="entropy = 0.0\nsamples = 8\nvalue = [0, 8, 0]\nclass = 雪莉", fillcolor="#39e581"] ;
1 -> 2 ;
3 [label="entropy = 0.0\nsamples = 36\nvalue = [0, 0, 36]\nclass = 贝尔摩德", fillcolor="#8139e5"] ;
1 -> 3 ;
4 [label="脯氨酸 <= 724.5\nentropy = 1.0\nsamples = 80\nvalue = [41, 39, 0]\nclass = 琴酒", fillcolor="#fef9f5"] ;
0 -> 4 [labeldistance=2.5, labelangle=-45, headlabel="False"] ;
5 [label="灰的碱性 <= 17.75\nentropy = 0.179\nsamples = 37\nvalue = [1, 36, 0]\nclass = 雪莉", fillcolor="#3ee684"] ;
4 -> 5 ;
6 [label="色调 <= 0.9\nentropy = 0.811\nsamples = 4\nvalue = [1, 3, 0]\nclass = 雪莉", fillcolor="#7beeab"] ;
5 -> 6 ;
7 [label="entropy = 0.0\nsamples = 1\nvalue = [1, 0, 0]\nclass = 琴酒", fillcolor="#e58139"] ;
6 -> 7 ;
8 [label="entropy = 0.0\nsamples = 3\nvalue = [0, 3, 0]\nclass = 雪莉", fillcolor="#39e581"] ;
6 -> 8 ;
9 [label="entropy = 0.0\nsamples = 33\nvalue = [0, 33, 0]\nclass = 雪莉", fillcolor="#39e581"] ;
5 -> 9 ;
10 [label="颜色强度 <= 3.435\nentropy = 0.365\nsamples = 43\nvalue = [40, 3, 0]\nclass = 琴酒", fillcolor="#e78a48"] ;
4 -> 10 ;
11 [label="entropy = 0.0\nsamples = 3\nvalue = [0, 3, 0]\nclass = 雪莉", fillcolor="#39e581"] ;
10 -> 11 ;
12 [label="entropy = 0.0\nsamples = 40\nvalue = [40, 0, 0]\nclass = 琴酒", fillcolor="#e58139"] ;
10 -> 12 ;
}